digraph Tree {
node [shape=box, style="filled, rounded", color="black", fontname="helvetica"] ;
edge [fontname="helvetica"] ;
0 [label="Site EUI (kBtu/ft²) <= 24.45\nfriedman_mse = 0.999\nsamples = 6622\nvalue = 0.03", fillcolor="#e99356"] ;
1 [label="Largest Property Use Type_Multifamily Housing <= 0.5\nfriedman_mse = 0.571\nsamples = 336\nvalue = 0.655", fillcolor="#e89151"] ;
0 -> 1 [labeldistance=2.5, labelangle=45, headlabel="True"] ;
2 [label="log_Direct GHG Emissions (Metric Tons CO2e) <= 1.677\nfriedman_mse = 0.987\nsamples = 95\nvalue = 0.116", fillcolor="#e99355"] ;
1 -> 2 ;
3 [label="Site EUI (kBtu/ft²) <= 7.2\nfriedman_mse = 0.556\nsamples = 12\nvalue = 0.667", fillcolor="#e89051"] ;
2 -> 3 ;
4 [label="friedman_mse = 0.889\nsamples = 6\nvalue = 0.004", fillcolor="#e99456"] ;
3 -> 4 ;
5 [label="friedman_mse = 0.0\nsamples = 6\nvalue = 0.074", fillcolor="#e99356"] ;
3 -> 5 ;
6 [label="log_Water Intensity (All Water Sources) (gal/ft²) <= -0.249\nfriedman_mse = 0.999\nsamples = 83\nvalue = 0.036", fillcolor="#e99356"] ;
2 -> 6 ;
7 [label="friedman_mse = 0.556\nsamples = 6\nvalue = 0.304", fillcolor="#e99254"] ;
6 -> 7 ;
8 [label="Water Intensity (All Water Sources) (gal/ft²) <= 2.765\nfriedman_mse = 1.0\nsamples = 77\nvalue = -0.013", fillcolor="#e99456"] ;
6 -> 8 ;
9 [label="friedman_mse = 0.64\nsamples = 10\nvalue = -0.117", fillcolor="#e99457"] ;
8 -> 9 ;
10 [label="friedman_mse = 0.994\nsamples = 67\nvalue = 0.001", fillcolor="#e99456"] ;
8 -> 10 ;
11 [label="Weather Normalized Site Electricity Intensity (kWh/ft²) <= 5.55\nfriedman_mse = 0.248\nsamples = 241\nvalue = 0.867", fillcolor="#e89050"] ;
1 -> 11 ;
12 [label="Property Id <= 5873823.5\nfriedman_mse = 0.088\nsamples = 221\nvalue = 0.955", fillcolor="#e88f4f"] ;
11 -> 12 ;
13 [label="Weather Normalized Site Electricity Intensity (kWh/ft²) <= 4.15\nfriedman_mse = 0.055\nsamples = 215\nvalue = 0.972", fillcolor="#e88f4f"] ;
12 -> 13 ;
14 [label="friedman_mse = 0.0\nsamples = 133\nvalue = 0.001", fillcolor="#e99456"] ;
13 -> 14 ;
15 [label="friedman_mse = 0.141\nsamples = 82\nvalue = 0.0", fillcolor="#e99456"] ;
13 -> 15 ;
16 [label="friedman_mse = 0.889\nsamples = 6\nvalue = 0.001", fillcolor="#e99456"] ;
12 -> 16 ;
17 [label="Site EUI (kBtu/ft²) <= 22.5\nfriedman_mse = 0.99\nsamples = 20\nvalue = -0.1", fillcolor="#e99457"] ;
11 -> 17 ;
18 [label="friedman_mse = 0.793\nsamples = 11\nvalue = -0.058", fillcolor="#e99457"] ;
17 -> 18 ;
19 [label="friedman_mse = 0.889\nsamples = 9\nvalue = 0.599", fillcolor="#e89152"] ;
17 -> 19 ;
20 [label="log_Direct GHG Emissions (Metric Tons CO2e) <= 4.378\nfriedman_mse = 1.0\nsamples = 6286\nvalue = -0.003", fillcolor="#e99456"] ;
0 -> 20 [labeldistance=2.5, labelangle=-45, headlabel="False"] ;
21 [label="DOF Gross Floor Area <= 91616.5\nfriedman_mse = 0.992\nsamples = 387\nvalue = -0.09", fillcolor="#e99457"] ;
20 -> 21 ;
22 [label="Property Id <= 4408969.0\nfriedman_mse = 0.943\nsamples = 171\nvalue = -0.24", fillcolor="#e99558"] ;
21 -> 22 ;
23 [label="Water Intensity (All Water Sources) (gal/ft²) <= 3.145\nfriedman_mse = 0.989\nsamples = 114\nvalue = -0.105", fillcolor="#e99457"] ;
22 -> 23 ;
24 [label="friedman_mse = 0.0\nsamples = 8\nvalue = -22.81", fillcolor="#ffffff"] ;
23 -> 24 ;
25 [label="friedman_mse = 0.999\nsamples = 106\nvalue = -0.111", fillcolor="#e99457"] ;
23 -> 25 ;
26 [label="Order <= 4525.0\nfriedman_mse = 0.741\nsamples = 57\nvalue = -0.509", fillcolor="#e9965a"] ;
22 -> 26 ;
27 [label="friedman_mse = 0.454\nsamples = 23\nvalue = -4.059", fillcolor="#eda774"] ;
26 -> 27 ;
28 [label="friedman_mse = 0.875\nsamples = 34\nvalue = -0.345", fillcolor="#e99559"] ;
26 -> 28 ;
29 [label="log_Water Intensity (All Water Sources) (gal/ft²) <= 4.099\nfriedman_mse = 0.999\nsamples = 216\nvalue = 0.028", fillcolor="#e99356"] ;
21 -> 29 ;
30 [label="Site EUI (kBtu/ft²) <= 29.4\nfriedman_mse = 0.993\nsamples = 199\nvalue = 0.085", fillcolor="#e99356"] ;
29 -> 30 ;
31 [label="friedman_mse = 0.249\nsamples = 15\nvalue = 1.922", fillcolor="#e78b48"] ;
30 -> 31 ;
32 [label="friedman_mse = 1.0\nsamples = 184\nvalue = 0.197", fillcolor="#e99355"] ;
30 -> 32 ;
33 [label="Property Id <= 3327742.5\nfriedman_mse = 0.581\nsamples = 17\nvalue = -0.647", fillcolor="#e9975b"] ;
29 -> 33 ;
34 [label="friedman_mse = 0.0\nsamples = 9\nvalue = -3.661", fillcolor="#eca571"] ;
33 -> 34 ;
35 [label="friedman_mse = 0.938\nsamples = 8\nvalue = -2.479", fillcolor="#eb9f69"] ;
33 -> 35 ;
36 [label="log_Direct GHG Emissions (Metric Tons CO2e) <= 4.52\nfriedman_mse = 1.0\nsamples = 5899\nvalue = 0.002", fillcolor="#e99456"] ;
20 -> 36 ;
37 [label="DOF Gross Floor Area <= 181127.5\nfriedman_mse = 0.903\nsamples = 61\nvalue = 0.311", fillcolor="#e99254"] ;
36 -> 37 ;
38 [label="Property Id <= 2729371.5\nfriedman_mse = 0.972\nsamples = 48\nvalue = 0.167", fillcolor="#e99355"] ;
37 -> 38 ;
39 [label="friedman_mse = 0.438\nsamples = 8\nvalue = -0.607", fillcolor="#e9965b"] ;
38 -> 39 ;
40 [label="friedman_mse = 0.878\nsamples = 40\nvalue = 1.162", fillcolor="#e88e4e"] ;
38 -> 40 ;
41 [label="Property Id <= 3115583.0\nfriedman_mse = 0.284\nsamples = 13\nvalue = 0.846", fillcolor="#e89050"] ;
37 -> 41 ;
42 [label="friedman_mse = 0.0\nsamples = 7\nvalue = 3.952", fillcolor="#e58139"] ;
41 -> 42 ;
43 [label="friedman_mse = 0.556\nsamples = 6\nvalue = 1.513", fillcolor="#e78c4b"] ;
41 -> 43 ;
44 [label="Site EUI (kBtu/ft²) <= 26.1\nfriedman_mse = 1.0\nsamples = 5838\nvalue = -0.001", fillcolor="#e99456"] ;
36 -> 44 ;
45 [label="log_Water Intensity (All Water Sources) (gal/ft²) <= 3.76\nfriedman_mse = 0.71\nsamples = 13\nvalue = -0.538", fillcolor="#e9965a"] ;
44 -> 45 ;
46 [label="friedman_mse = 1.0\nsamples = 6\nvalue = -0.445", fillcolor="#e9965a"] ;
45 -> 46 ;
47 [label="friedman_mse = 0.0\nsamples = 7\nvalue = -0.148", fillcolor="#e99457"] ;
45 -> 47 ;
48 [label="Weather Normalized Site Electricity Intensity (kWh/ft²) <= 39.1\nfriedman_mse = 1.0\nsamples = 5825\nvalue = 0.0", fillcolor="#e99456"] ;
44 -> 48 ;
49 [label="friedman_mse = 1.0\nsamples = 5815\nvalue = 0.006", fillcolor="#e99456"] ;
48 -> 49 ;
50 [label="friedman_mse = 0.64\nsamples = 10\nvalue = -10.008", fillcolor="#f3c3a0"] ;
48 -> 50 ;
}